SNNS network definition file V1.4-3D
generated at Mon Jun 13 13:47:48 2011

network name : Compression
source files :
no. of units : 38
no. of connections : 261
no. of unit types : 0
no. of site types : 0


learning function : Std_Backpropagation
update function   : Topological_Order


unit default section :

act      | bias     | st | subnet | layer | act func     | out func
---------|----------|----|--------|-------|--------------|-------------
 0.00000 |  0.00000 | h  |      0 |     1 | Act_Logistic | Out_Identity 
---------|----------|----|--------|-------|--------------|-------------


unit definition section :

no. | typeName | unitName | act      | bias     | st | position | act func | out func | sites
----|----------|----------|----------|----------|----|----------|----------|----------|-------
  1 |          | Output   |  0.79999 | -0.99030 | o  |  4,13, 1 |||
  2 |          | noName   |  0.80000 |  0.80687 | i  |  2, 1, 1 |||
  3 |          | noName   |  0.80000 | -0.98001 | i  |  3, 1, 1 |||
  4 |          | noName   |  0.80000 |  0.63882 | i  |  4, 1, 1 |||
  5 |          | noName   |  0.80000 | -0.73301 | i  |  5, 1, 1 |||
  6 |          | noName   |  0.80000 |  0.09159 | i  |  6, 1, 1 |||
  7 |          | noName   |  0.80000 |  0.37445 | i  |  7, 1, 1 |||
  8 |          | noName   |  0.80000 |  0.24098 | i  |  8, 1, 1 |||
  9 |          | noName   |  0.80000 |  0.06981 | i  |  9, 1, 1 |||
 10 |          | noName   |  0.80000 | -0.75870 | i  |  2, 2, 1 |||
 11 |          | noName   |  0.80000 | -0.28881 | i  |  3, 2, 1 |||
 12 |          | noName   |  0.80000 | -0.27211 | i  |  4, 2, 1 |||
 13 |          | noName   |  0.80000 | -0.19764 | i  |  5, 2, 1 |||
 14 |          | noName   |  0.80000 |  0.67263 | i  |  6, 2, 1 |||
 15 |          | noName   |  0.80000 | -0.32260 | i  |  7, 2, 1 |||
 16 |          | noName   |  0.80000 |  0.08911 | i  |  8, 2, 1 |||
 17 |          | noName   |  0.80000 | -0.09493 | i  |  9, 2, 1 |||
 18 |          | noName   |  0.80000 |  0.72297 | i  |  2, 3, 1 |||
 19 |          | noName   |  0.80000 | -0.98730 | i  |  3, 3, 1 |||
 20 |          | noName   |  0.80000 |  0.59145 | i  |  4, 3, 1 |||
 21 |          | noName   |  0.80000 | -0.16437 | i  |  5, 3, 1 |||
 22 |          | noName   |  0.80000 | -0.79586 | i  |  6, 3, 1 |||
 23 |          | noName   |  0.80000 |  0.31299 | i  |  7, 3, 1 |||
 24 |          | noName   |  0.80000 |  0.38334 | i  |  8, 3, 1 |||
 25 |          | noName   |  0.80000 |  0.69508 | i  |  9, 3, 1 |||
 26 |          | noName   |  0.80000 | -0.21836 | i  |  2, 4, 1 |||
 27 |          | noName   |  0.80000 |  0.04329 | i  |  3, 4, 1 |||
 28 |          | noName   |  0.80000 |  0.46414 | i  |  4, 4, 1 |||
 29 |          | noName   |  0.80000 |  0.98311 | i  |  5, 4, 1 |||
 30 |          | noName   |  0.65590 |  0.07603 | h  |  4, 7, 1 |||
 31 |          | noName   |  0.54768 | -0.60080 | h  |  5, 7, 1 |||
 32 |          | noName   |  0.17660 | -0.77706 | h  |  6, 7, 1 |||
 33 |          | noName   |  0.56454 | -0.35735 | h  |  4, 8, 1 |||
 34 |          | noName   |  0.56577 | -0.46377 | h  |  5, 8, 1 |||
 35 |          | noName   |  0.55879 | -0.62237 | h  |  6, 8, 1 |||
 36 |          | noName   |  0.49943 |  0.75433 | h  |  4, 9, 1 |||
 37 |          | noName   |  0.42321 |  0.45853 | h  |  5, 9, 1 |||
 38 |          | noName   |  0.64398 |  1.95745 | h  |  6, 9, 1 |||
----|----------|----------|----------|----------|----|----------|----------|----------|-------


connection definition section :

target | site | source:weight
-------|------|---------------------------------------------------------------------------------------------------------------------
     1 |      | 38:-2.83971, 37:-3.11352, 36:-1.60946, 35: 2.10709, 34: 2.20675, 33: 3.13856, 32:-0.25057, 31: 1.69549, 30: 1.89767
    30 |      | 29: 1.56490, 28: 0.49823, 27: 0.16880, 26:-0.24554, 25: 0.46595, 24: 1.21492, 23: 1.32257, 22: 0.63130, 21:-0.92202,
                20:-0.17923, 19: 0.25576, 18: 0.07013, 17:-0.65093, 16:-0.82741, 15: 0.10760, 14:-0.45293, 13:-0.34690, 12:-0.94656,
                11: 0.43692, 10:-0.60607,  9:-0.19258,  8: 0.44510,  7: 0.51146,  6:-0.36323,  5:-0.17307,  4: 0.05916,  3:-0.73118,
                 2:-0.40382
    31 |      | 29:-0.30222, 28:-0.96534, 27: 1.08618, 26: 0.78083, 25:-0.31650, 24:-0.62797, 23: 0.62028, 22: 1.39953, 21:-0.90331,
                20: 0.05799, 19:-0.23185, 18: 0.20441, 17: 0.66039, 16: 0.62950, 15:-0.82726, 14:-0.09805, 13:-0.60808, 12:-0.81237,
                11: 0.15504, 10: 0.57325,  9: 0.22822,  8:-0.83792,  7:-0.77868,  6: 0.56608,  5:-0.49613,  4: 0.37096,  3: 0.33894,
                 2: 1.12420
    32 |      | 29:-0.60259, 28:-0.49463, 27:-0.22715, 26: 0.32713, 25: 0.97983, 24:-0.59177, 23:-0.21421, 22: 0.40812, 21:-0.55143,
                20:-0.61257, 19:-0.60141, 18:-0.77315, 17:-0.09183, 16: 0.11707, 15: 1.12426, 14: 0.51138, 13:-0.39458, 12:-0.04007,
                11:-0.25515, 10: 1.10045,  9: 0.42502,  8:-0.71386,  7:-0.58637,  6:-0.29455,  5: 0.16799,  4: 0.57545,  3: 1.10595,
                 2:-0.75042
    33 |      | 29: 1.49752, 28: 0.63761, 27: 0.02613, 26: 0.41318, 25:-0.25761, 24:-0.11180, 23:-0.50765, 22: 2.13896, 21:-1.19750,
                20:-0.85850, 19:-0.84315, 18:-0.38711, 17: 0.31574, 16:-0.89217, 15:-0.55084, 14: 0.99935, 13: 0.20681, 12: 0.47199,
                11: 0.43593, 10:-0.38394,  9:-0.24151,  8: 0.12681,  7: 1.04256,  6: 0.28304,  5:-0.99729,  4: 0.13053,  3:-0.28613,
                 2:-0.43976
    34 |      | 29:-1.68106, 28:-1.68784, 27:-1.81702, 26:-0.96742, 25: 1.05411, 24: 0.89825, 23: 0.42373, 22:-0.32639, 21:-0.09519,
                20: 0.55338, 19: 0.64589, 18:-0.03011, 17: 0.56124, 16: 0.70214, 15: 0.26654, 14:-0.37154, 13: 0.48372, 12: 1.07270,
                11: 0.74480, 10: 0.80735,  9: 0.86981,  8: 0.22229,  7:-0.42159,  6: 0.39169,  5: 0.26789,  4:-0.78376,  3:-0.51770,
                 2:-0.35542
    35 |      | 29: 0.39090, 28:-0.82171, 27:-0.98009, 26:-0.58307, 25: 1.10594, 24: 0.16593, 23:-0.74369, 22: 1.66063, 21:-0.60161,
                20: 0.82870, 19: 0.20611, 18: 0.69643, 17:-0.76440, 16:-0.29511, 15: 0.53434, 14:-0.44476, 13:-0.07732, 12: 0.53834,
                11:-0.43732, 10:-0.35436,  9:-0.86825,  8:-0.60181,  7: 0.48692,  6: 0.82304,  5:-0.72642,  4: 0.88105,  3: 0.70635,
                 2: 0.34851
    36 |      | 29:-0.60705, 28: 0.09122, 27:-0.97962, 26:-0.79338, 25: 0.75800, 24:-0.35813, 23:-0.86514, 22: 0.00815, 21:-0.24329,
                20: 0.63178, 19: 0.66125, 18: 0.09643, 17: 0.49303, 16:-0.48311, 15:-0.58767, 14:-0.40786, 13: 0.29559, 12: 0.36531,
                11: 0.90451, 10:-0.61988,  9:-0.61287,  8:-0.30650,  7: 0.79454,  6:-0.40708,  5: 0.18947,  4: 0.57005,  3: 0.21062,
                 2: 0.25586
    37 |      | 29:-1.52602, 28:-0.14131, 27:-0.88481, 26: 0.00721, 25: 0.50940, 24: 0.85551, 23: 0.20532, 22: 1.13973, 21:-0.31180,
                20:-0.39823, 19:-0.32615, 18: 0.20158, 17: 0.02669, 16:-0.48866, 15: 0.09477, 14: 1.56031, 13:-0.98362, 12:-0.50938,
                11: 0.34821, 10: 0.28097,  9:-0.08628,  8: 0.01143,  7: 0.64719,  6: 1.45119,  5:-1.87512,  4:-0.05306,  3:-0.19235,
                 2:-0.52287
    38 |      | 29:-1.69397, 28:-0.23605, 27:-0.39087, 26:-0.04619, 25: 0.20303, 24: 0.09241, 23:-0.05288, 22:-0.78630, 21:-0.02157,
                20:-0.24748, 19: 0.10495, 18: 0.18209, 17:-0.14090, 16: 0.07109, 15: 0.18865, 14:-0.68953, 13: 0.65220, 12: 1.14191,
                11: 0.12559, 10:-0.33274,  9: 0.31294,  8:-0.19646,  7: 0.01679,  6:-0.73931,  5: 0.58575,  4: 0.15829,  3:-0.48063,
                 2: 0.51325
-------|------|---------------------------------------------------------------------------------------------------------------------


layer definition section :

layer | unitNo.
------|----------------------------------------------------------------------------------------------------------------------------
    3 |  1
    2 | 30, 31, 32, 33, 34, 35, 36, 37, 38
------|----------------------------------------------------------------------------------------------------------------------------
